digraph Tree {
node [shape=box, style="filled, rounded", color="black", fontname=helvetica] ;
edge [fontname=helvetica] ;
0 [label="blodtryk_hvile <= 162.0\ngini = 0.48\nsamples = 100.0%\nvalue = [0.4, 0.6]\nclass = hjertesygdom", fillcolor="#c0e0f7"] ;
1 [label="st_depresion <= 1.15\n0.47\n91.6%\n[0.37, 0.63]\nhjertesygdom", fillcolor="#aed7f4"] ;
0 -> 1 [labeldistance=2.5, labelangle=45, headlabel="True"] ;
2 [label="thalassæmi_fixed defect <= 0.5\n0.32\n56.6%\n[0.2, 0.8]\nhjertesygdom", fillcolor="#6ab6ec"] ;
1 -> 2 ;
3 [label="st_depresion <= 0.55\n0.5\n17.5%\n[0.46, 0.54]\nhjertesygdom", fillcolor="#e3f1fb"] ;
2 -> 3 ;
4 [label="st_depresion <= 0.3\n0.44\n11.2%\n[0.33, 0.67]\nhjertesygdom", fillcolor="#9ccef2"] ;
3 -> 4 ;
5 [label="0.5\n7.7%\n[0.47, 0.53]\nhjertesygdom", fillcolor="#e9f4fc"] ;
4 -> 5 ;
6 [label="0.18\n3.5%\n[0.1, 0.9]\nhjertesygdom", fillcolor="#4fa8e8"] ;
4 -> 6 ;
7 [label="blodtryk_hvile <= 122.5\n0.38\n6.3%\n[0.75, 0.25]\ningen hjertesygdom", fillcolor="#eeab7b"] ;
3 -> 7 ;
8 [label="0.5\n2.8%\n[0.5, 0.5]\ningen hjertesygdom", fillcolor="#ffffff"] ;
7 -> 8 ;
9 [label="0.0\n3.5%\n[1.0, 0.0]\ningen hjertesygdom", fillcolor="#e58139"] ;
7 -> 9 ;
10 [label="alder <= 62.5\n0.18\n39.2%\n[0.1, 0.9]\nhjertesygdom", fillcolor="#4fa8e8"] ;
2 -> 10 ;
11 [label="st_depresion <= 0.75\n0.09\n32.2%\n[0.05, 0.95]\nhjertesygdom", fillcolor="#43a2e6"] ;
10 -> 11 ;
12 [label="0.06\n26.6%\n[0.03, 0.97]\nhjertesygdom", fillcolor="#3fa0e6"] ;
11 -> 12 ;
13 [label="0.24\n5.6%\n[0.14, 0.86]\nhjertesygdom", fillcolor="#5aade9"] ;
11 -> 13 ;
14 [label="kolesterol <= 241.0\n0.46\n7.0%\n[0.35, 0.65]\nhjertesygdom", fillcolor="#a5d2f3"] ;
10 -> 14 ;
15 [label="0.44\n2.1%\n[0.67, 0.33]\ningen hjertesygdom", fillcolor="#f2c09c"] ;
14 -> 15 ;
16 [label="0.3\n4.9%\n[0.18, 0.82]\nhjertesygdom", fillcolor="#65b3eb"] ;
14 -> 16 ;
17 [label="type_bryst_smerte_typisk angina <= 0.5\n0.44\n35.0%\n[0.67, 0.33]\ningen hjertesygdom", fillcolor="#f2c09c"] ;
1 -> 17 ;
18 [label="thalassæmi_fixed defect <= 0.5\n0.35\n12.6%\n[0.22, 0.78]\nhjertesygdom", fillcolor="#72b9ec"] ;
17 -> 18 ;
19 [label="thalassæmi_normal <= 0.5\n0.48\n4.9%\n[0.4, 0.6]\nhjertesygdom", fillcolor="#bddef6"] ;
18 -> 19 ;
20 [label="0.47\n3.5%\n[0.38, 0.62]\nhjertesygdom", fillcolor="#b0d8f5"] ;
19 -> 20 ;
21 [label="0.5\n1.4%\n[0.5, 0.5]\ningen hjertesygdom", fillcolor="#ffffff"] ;
19 -> 21 ;
22 [label="st_segment_eleveret <= 0.5\n0.21\n7.7%\n[0.12, 0.88]\nhjertesygdom", fillcolor="#53aae8"] ;
18 -> 22 ;
23 [label="0.0\n4.9%\n[0.0, 1.0]\nhjertesygdom", fillcolor="#399de5"] ;
22 -> 23 ;
24 [label="0.44\n2.8%\n[0.33, 0.67]\nhjertesygdom", fillcolor="#9ccef2"] ;
22 -> 24 ;
25 [label="max_hjerterystme <= 177.0\n0.2\n22.4%\n[0.89, 0.11]\ningen hjertesygdom", fillcolor="#e89152"] ;
17 -> 25 ;
26 [label="kolesterol <= 159.0\n0.14\n21.0%\n[0.92, 0.08]\ningen hjertesygdom", fillcolor="#e78c49"] ;
25 -> 26 ;
27 [label="0.0\n0.7%\n[0.0, 1.0]\nhjertesygdom", fillcolor="#399de5"] ;
26 -> 27 ;
28 [label="0.11\n20.3%\n[0.94, 0.06]\ningen hjertesygdom", fillcolor="#e78945"] ;
26 -> 28 ;
29 [label="0.0\n1.4%\n[0.0, 1.0]\nhjertesygdom", fillcolor="#399de5"] ;
25 -> 29 ;
30 [label="max_hjerterystme <= 152.0\n0.36\n8.4%\n[0.76, 0.24]\ningen hjertesygdom", fillcolor="#eda877"] ;
0 -> 30 [labeldistance=2.5, labelangle=-45, headlabel="False"] ;
31 [label="0.0\n4.2%\n[1.0, 0.0]\ningen hjertesygdom", fillcolor="#e58139"] ;
30 -> 31 ;
32 [label="st_depresion <= 0.35\n0.5\n4.2%\n[0.5, 0.5]\ningen hjertesygdom", fillcolor="#ffffff"] ;
30 -> 32 ;
33 [label="thalassæmi_reversable defect <= 0.5\n0.32\n2.1%\n[0.8, 0.2]\ningen hjertesygdom", fillcolor="#eca06a"] ;
32 -> 33 ;
34 [label="0.0\n0.7%\n[0.0, 1.0]\nhjertesygdom", fillcolor="#399de5"] ;
33 -> 34 ;
35 [label="0.0\n1.4%\n[1.0, 0.0]\ningen hjertesygdom", fillcolor="#e58139"] ;
33 -> 35 ;
36 [label="blodkar_fluoroskopi <= 1.0\n0.32\n2.1%\n[0.2, 0.8]\nhjertesygdom", fillcolor="#6ab6ec"] ;
32 -> 36 ;
37 [label="0.0\n1.4%\n[0.0, 1.0]\nhjertesygdom", fillcolor="#399de5"] ;
36 -> 37 ;
38 [label="0.0\n0.7%\n[1.0, 0.0]\ningen hjertesygdom", fillcolor="#e58139"] ;
36 -> 38 ;
}