digraph Tree {
node [shape=box, style="filled, rounded", color="black", fontname=helvetica] ;
edge [fontname=helvetica] ;
0 [label="type_bryst_smerte_typisk angina <= 0.5\nentropy = 0.98\nsamples = 100.0%\nvalue = [0.43, 0.57]\nclass = hjertesygdom", fillcolor="#cce6f8"] ;
1 [label="alder <= 44.5\n0.68\n54.5%\n[0.18, 0.82]\nhjertesygdom", fillcolor="#65b3eb"] ;
0 -> 1 [labeldistance=2.5, labelangle=45, headlabel="True"] ;
2 [label="0.0\n12.0%\n[0.0, 1.0]\nhjertesygdom", fillcolor="#399de5"] ;
1 -> 2 ;
3 [label="køn_mand <= 0.5\n0.78\n42.6%\n[0.23, 0.77]\nhjertesygdom", fillcolor="#75bbed"] ;
1 -> 3 ;
4 [label="alder <= 56.5\n0.38\n16.9%\n[0.07, 0.93]\nhjertesygdom", fillcolor="#49a5e7"] ;
3 -> 4 ;
5 [label="0.0\n8.3%\n[0.0, 1.0]\nhjertesygdom", fillcolor="#399de5"] ;
4 -> 5 ;
6 [label="alder <= 62.5\n0.59\n8.7%\n[0.14, 0.86]\nhjertesygdom", fillcolor="#5aade9"] ;
4 -> 6 ;
7 [label="st_segment_normal <= 0.5\n0.95\n3.3%\n[0.38, 0.62]\nhjertesygdom", fillcolor="#b0d8f5"] ;
6 -> 7 ;
8 [label="ekg_hvile_normal <= 0.5\n0.65\n2.5%\n[0.17, 0.83]\nhjertesygdom", fillcolor="#61b1ea"] ;
7 -> 8 ;
9 [label="0.0\n1.7%\n[0.0, 1.0]\nhjertesygdom", fillcolor="#399de5"] ;
8 -> 9 ;
10 [label="max_hjerterytme <= 157.0\n1.0\n0.8%\n[0.5, 0.5]\ningen hjertesygdom", fillcolor="#ffffff"] ;
8 -> 10 ;
11 [label="0.0\n0.4%\n[1.0, 0.0]\ningen hjertesygdom", fillcolor="#e58139"] ;
10 -> 11 ;
12 [label="0.0\n0.4%\n[0.0, 1.0]\nhjertesygdom", fillcolor="#399de5"] ;
10 -> 12 ;
13 [label="0.0\n0.8%\n[1.0, 0.0]\ningen hjertesygdom", fillcolor="#e58139"] ;
7 -> 13 ;
14 [label="0.0\n5.4%\n[0.0, 1.0]\nhjertesygdom", fillcolor="#399de5"] ;
6 -> 14 ;
15 [label="st_segment_normal <= 0.5\n0.92\n25.6%\n[0.34, 0.66]\nhjertesygdom", fillcolor="#9ecff2"] ;
3 -> 15 ;
16 [label="blodsukker_faste_under 120mg/ml <= 0.5\n0.71\n14.9%\n[0.19, 0.81]\nhjertesygdom", fillcolor="#69b5eb"] ;
15 -> 16 ;
17 [label="0.0\n3.3%\n[0.0, 1.0]\nhjertesygdom", fillcolor="#399de5"] ;
16 -> 17 ;
18 [label="kolesterol <= 158.5\n0.81\n11.6%\n[0.25, 0.75]\nhjertesygdom", fillcolor="#7bbeee"] ;
16 -> 18 ;
19 [label="0.0\n0.4%\n[1.0, 0.0]\ningen hjertesygdom", fillcolor="#e58139"] ;
18 -> 19 ;
20 [label="blodtryk_hvile <= 158.0\n0.76\n11.2%\n[0.22, 0.78]\nhjertesygdom", fillcolor="#72b9ec"] ;
18 -> 20 ;
21 [label="kolesterol <= 330.0\n0.65\n9.9%\n[0.17, 0.83]\nhjertesygdom", fillcolor="#61b1ea"] ;
20 -> 21 ;
22 [label="alder <= 48.5\n0.56\n9.5%\n[0.13, 0.87]\nhjertesygdom", fillcolor="#57ace9"] ;
21 -> 22 ;
23 [label="kolesterol <= 248.0\n1.0\n1.7%\n[0.5, 0.5]\ningen hjertesygdom", fillcolor="#ffffff"] ;
22 -> 23 ;
24 [label="0.0\n0.8%\n[1.0, 0.0]\ningen hjertesygdom", fillcolor="#e58139"] ;
23 -> 24 ;
25 [label="0.0\n0.8%\n[0.0, 1.0]\nhjertesygdom", fillcolor="#399de5"] ;
23 -> 25 ;
26 [label="type_bryst_smerte_ingen symptomer <= 0.5\n0.3\n7.9%\n[0.05, 0.95]\nhjertesygdom", fillcolor="#44a2e6"] ;
22 -> 26 ;
27 [label="0.0\n7.0%\n[0.0, 1.0]\nhjertesygdom", fillcolor="#399de5"] ;
26 -> 27 ;
28 [label="alder <= 55.0\n1.0\n0.8%\n[0.5, 0.5]\ningen hjertesygdom", fillcolor="#ffffff"] ;
26 -> 28 ;
29 [label="0.0\n0.4%\n[0.0, 1.0]\nhjertesygdom", fillcolor="#399de5"] ;
28 -> 29 ;
30 [label="0.0\n0.4%\n[1.0, 0.0]\ningen hjertesygdom", fillcolor="#e58139"] ;
28 -> 30 ;
31 [label="0.0\n0.4%\n[1.0, 0.0]\ningen hjertesygdom", fillcolor="#e58139"] ;
21 -> 31 ;
32 [label="kolesterol <= 271.5\n0.92\n1.2%\n[0.67, 0.33]\ningen hjertesygdom", fillcolor="#f2c09c"] ;
20 -> 32 ;
33 [label="0.0\n0.4%\n[0.0, 1.0]\nhjertesygdom", fillcolor="#399de5"] ;
32 -> 33 ;
34 [label="0.0\n0.8%\n[1.0, 0.0]\ningen hjertesygdom", fillcolor="#e58139"] ;
32 -> 34 ;
35 [label="max_hjerterytme <= 135.5\n1.0\n10.7%\n[0.54, 0.46]\ningen hjertesygdom", fillcolor="#fbede3"] ;
15 -> 35 ;
36 [label="0.0\n1.7%\n[1.0, 0.0]\ningen hjertesygdom", fillcolor="#e58139"] ;
35 -> 36 ;
37 [label="blodtryk_hvile <= 119.0\n0.99\n9.1%\n[0.45, 0.55]\nhjertesygdom", fillcolor="#deeffb"] ;
35 -> 37 ;
38 [label="0.0\n1.7%\n[0.0, 1.0]\nhjertesygdom", fillcolor="#399de5"] ;
37 -> 38 ;
39 [label="alder <= 64.5\n0.99\n7.4%\n[0.56, 0.44]\ningen hjertesygdom", fillcolor="#fae6d7"] ;
37 -> 39 ;
40 [label="max_hjerterytme <= 161.0\n1.0\n6.2%\n[0.47, 0.53]\nhjertesygdom", fillcolor="#e6f3fc"] ;
39 -> 40 ;
41 [label="st_depresion <= 1.4\n0.95\n4.5%\n[0.64, 0.36]\ningen hjertesygdom", fillcolor="#f4c9aa"] ;
40 -> 41 ;
42 [label="blodtryk_hvile <= 126.5\n0.99\n2.9%\n[0.43, 0.57]\nhjertesygdom", fillcolor="#cee6f8"] ;
41 -> 42 ;
43 [label="0.0\n0.8%\n[0.0, 1.0]\nhjertesygdom", fillcolor="#399de5"] ;
42 -> 43 ;
44 [label="alder <= 60.0\n0.97\n2.1%\n[0.6, 0.4]\ningen hjertesygdom", fillcolor="#f6d5bd"] ;
42 -> 44 ;
45 [label="0.0\n1.2%\n[1.0, 0.0]\ningen hjertesygdom", fillcolor="#e58139"] ;
44 -> 45 ;
46 [label="0.0\n0.8%\n[0.0, 1.0]\nhjertesygdom", fillcolor="#399de5"] ;
44 -> 46 ;
47 [label="0.0\n1.7%\n[1.0, 0.0]\ningen hjertesygdom", fillcolor="#e58139"] ;
41 -> 47 ;
48 [label="0.0\n1.7%\n[0.0, 1.0]\nhjertesygdom", fillcolor="#399de5"] ;
40 -> 48 ;
49 [label="0.0\n1.2%\n[1.0, 0.0]\ningen hjertesygdom", fillcolor="#e58139"] ;
39 -> 49 ;
50 [label="thallium_stress_test_fixed defect <= 0.5\n0.86\n45.5%\n[0.72, 0.28]\ningen hjertesygdom", fillcolor="#efb287"] ;
0 -> 50 [labeldistance=2.5, labelangle=-45, headlabel="False"] ;
51 [label="st_depresion <= 0.55\n0.53\n27.7%\n[0.88, 0.12]\ningen hjertesygdom", fillcolor="#e99254"] ;
50 -> 51 ;
52 [label="kolesterol <= 237.5\n0.96\n7.4%\n[0.61, 0.39]\ningen hjertesygdom", fillcolor="#f6d1b7"] ;
51 -> 52 ;
53 [label="kolesterol <= 205.0\n0.88\n4.1%\n[0.3, 0.7]\nhjertesygdom", fillcolor="#8ec7f0"] ;
52 -> 53 ;
54 [label="st_depresion <= 0.2\n0.97\n2.1%\n[0.6, 0.4]\ningen hjertesygdom", fillcolor="#f6d5bd"] ;
53 -> 54 ;
55 [label="0.0\n1.2%\n[1.0, 0.0]\ningen hjertesygdom", fillcolor="#e58139"] ;
54 -> 55 ;
56 [label="0.0\n0.8%\n[0.0, 1.0]\nhjertesygdom", fillcolor="#399de5"] ;
54 -> 56 ;
57 [label="0.0\n2.1%\n[0.0, 1.0]\nhjertesygdom", fillcolor="#399de5"] ;
53 -> 57 ;
58 [label="0.0\n3.3%\n[1.0, 0.0]\ningen hjertesygdom", fillcolor="#e58139"] ;
52 -> 58 ;
59 [label="alder <= 65.5\n0.14\n20.2%\n[0.98, 0.02]\ningen hjertesygdom", fillcolor="#e6843d"] ;
51 -> 59 ;
60 [label="0.0\n18.2%\n[1.0, 0.0]\ningen hjertesygdom", fillcolor="#e58139"] ;
59 -> 60 ;
61 [label="thallium_stress_test_reversable defect <= 0.5\n0.72\n2.1%\n[0.8, 0.2]\ningen hjertesygdom", fillcolor="#eca06a"] ;
59 -> 61 ;
62 [label="0.0\n0.4%\n[0.0, 1.0]\nhjertesygdom", fillcolor="#399de5"] ;
61 -> 62 ;
63 [label="0.0\n1.7%\n[1.0, 0.0]\ningen hjertesygdom", fillcolor="#e58139"] ;
61 -> 63 ;
64 [label="max_hjerterytme <= 120.0\n1.0\n17.8%\n[0.47, 0.53]\nhjertesygdom", fillcolor="#e5f2fc"] ;
50 -> 64 ;
65 [label="0.0\n3.3%\n[1.0, 0.0]\ningen hjertesygdom", fillcolor="#e58139"] ;
64 -> 65 ;
66 [label="max_hjerterytme <= 177.5\n0.93\n14.5%\n[0.34, 0.66]\nhjertesygdom", fillcolor="#a0d0f3"] ;
64 -> 66 ;
67 [label="køn_mand <= 0.5\n0.97\n12.4%\n[0.4, 0.6]\nhjertesygdom", fillcolor="#bddef6"] ;
66 -> 67 ;
68 [label="alder <= 58.5\n0.81\n8.3%\n[0.25, 0.75]\nhjertesygdom", fillcolor="#7bbeee"] ;
67 -> 68 ;
69 [label="0.0\n3.7%\n[0.0, 1.0]\nhjertesygdom", fillcolor="#399de5"] ;
68 -> 69 ;
70 [label="alder <= 63.5\n0.99\n4.5%\n[0.45, 0.55]\nhjertesygdom", fillcolor="#deeffb"] ;
68 -> 70 ;
71 [label="kolesterol <= 226.5\n0.86\n2.9%\n[0.71, 0.29]\ningen hjertesygdom", fillcolor="#efb388"] ;
70 -> 71 ;
72 [label="0.0\n0.4%\n[0.0, 1.0]\nhjertesygdom", fillcolor="#399de5"] ;
71 -> 72 ;
73 [label="kolesterol <= 362.0\n0.65\n2.5%\n[0.83, 0.17]\ningen hjertesygdom", fillcolor="#ea9a61"] ;
71 -> 73 ;
74 [label="0.0\n2.1%\n[1.0, 0.0]\ningen hjertesygdom", fillcolor="#e58139"] ;
73 -> 74 ;
75 [label="0.0\n0.4%\n[0.0, 1.0]\nhjertesygdom", fillcolor="#399de5"] ;
73 -> 75 ;
76 [label="0.0\n1.7%\n[0.0, 1.0]\nhjertesygdom", fillcolor="#399de5"] ;
70 -> 76 ;
77 [label="st_depresion <= 1.35\n0.88\n4.1%\n[0.7, 0.3]\ningen hjertesygdom", fillcolor="#f0b78e"] ;
67 -> 77 ;
78 [label="kolesterol <= 300.5\n0.54\n3.3%\n[0.88, 0.12]\ningen hjertesygdom", fillcolor="#e99355"] ;
77 -> 78 ;
79 [label="0.0\n2.5%\n[1.0, 0.0]\ningen hjertesygdom", fillcolor="#e58139"] ;
78 -> 79 ;
80 [label="st_segment_sænket <= 0.5\n1.0\n0.8%\n[0.5, 0.5]\ningen hjertesygdom", fillcolor="#ffffff"] ;
78 -> 80 ;
81 [label="0.0\n0.4%\n[0.0, 1.0]\nhjertesygdom", fillcolor="#399de5"] ;
80 -> 81 ;
82 [label="0.0\n0.4%\n[1.0, 0.0]\ningen hjertesygdom", fillcolor="#e58139"] ;
80 -> 82 ;
83 [label="0.0\n0.8%\n[0.0, 1.0]\nhjertesygdom", fillcolor="#399de5"] ;
77 -> 83 ;
84 [label="0.0\n2.1%\n[0.0, 1.0]\nhjertesygdom", fillcolor="#399de5"] ;
66 -> 84 ;
}